{"learner":{"attributes":{"best_iteration":"11","best_msg":"[12]\ttrain-auc:0.991657\ttest-auc:0.920863","best_ntreelimit":"12","best_score":"0.92086267605633798","niter":"61"},"feature_names":[],"feature_types":[],"gradient_booster":{"model":{"gbtree_model_param":{"num_parallel_tree":"1","num_trees":"62","size_leaf_vector":"0"},"tree_info":[0,0,0,0,0,0,0,0,0,0,0,0,0,0,0,0,0,0,0,0,0,0,0,0,0,0,0,0,0,0,0,0,0,0,0,0,0,0,0,0,0,0,0,0,0,0,0,0,0,0,0,0,0,0,0,0,0,0,0,0,0,0],"trees":[{"base_weights":[-8.448276E-1,-1.2344828E0,1.0333333E0,4.7191012E-1,-1.5393939E0,1.3333334E0,-3.6363637E-1,-1.4545455E0,1.0985916E0,-1.7562077E0,2.1428572E-1,1.6666667E-1,1.5609756E0,1.6666667E-1,1.372549E0,-1.1683168E0,-1.8959538E0,-1.4545455E0,1.2631578E0],"categories":[],"categories_nodes":[],"categories_segments":[],"categories_sizes":[],"default_left":[1,1,1,1,1,1,0,0,1,1,1,0,0,0,0,0,0,0,0],"id":0,"left_children":[1,3,5,7,9,11,-1,-1,13,15,17,-1,-1,-1,-1,-1,-1,-1,-1],"loss_changes":[1.2881609E2,7.723718E1,1.4027271E1,2.8103844E1,4.8970703E1,4.7845535E0,0E0,0E0,2.7637386E0,3.819336E0,2.6151402E1,0E0,0E0,0E0,0E0,0E0,0E0,0E0,0E0],"parents":[2147483647,0,0,1,1,2,2,3,3,4,4,5,5,8,8,9,9,10,10],"right_children":[2,4,6,8,10,12,-1,-1,14,16,18,-1,-1,-1,-1,-1,-1,-1,-1],"split_conditions":[1.1375E3,1.0085E0,4.01E1,2.8455E1,5.395E1,2E1,-1.4545456E-1,-5.818182E-1,3.4800003E1,1.405E1,1.8060001E1,6.666667E-2,6.2439024E-1,6.666667E-2,5.4901963E-1,-4.6732673E-1,-7.5838155E-1,-5.818182E-1,5.0526315E-1],"split_indices":[3,9,8,4,1,5,0,0,8,2,7,0,0,0,0,0,0,0,0],"split_type":[0,0,0,0,0,0,0,0,0,0,0,0,0,0,0,0,0,0,0],"sum_hessian":[1.73E2,1.44E2,2.9E1,2.125E1,1.2275E2,2.45E1,4.5E0,4.5E0,1.675E1,1.0975E2,1.3E1,5E0,1.95E1,5E0,1.175E1,2.425E1,8.55E1,4.5E0,8.5E0],"tree_param":{"num_deleted":"0","num_feature":"10","num_nodes":"19","size_leaf_vector":"0"}},{"base_weights":[-2.785439E-1,-9.295332E-1,1.6240588E0,-1.1431181E0,2.281729E-1,1.7676251E0,7.514174E-2,-3.220569E-1,-1.2861586E0,-1.19859174E-1,1.142547E0,1.2836194E0,-1.0609336E0,-6.049648E-1,-1.4340763E0,4.1689882E-1,-1.3317796E0],"categories":[],"categories_nodes":[],"categories_segments":[],"categories_sizes":[],"default_left":[1,1,1,1,1,0,0,1,1,1,0,0,0,0,0,0,0],"id":1,"left_children":[1,3,5,7,9,-1,-1,11,13,15,-1,-1,-1,-1,-1,-1,-1],"loss_changes":[2.1340047E2,3.3050972E1,7.7483063E0,1.086441E1,7.582364E0,0E0,0E0,2.326669E1,6.3709717E0,1.1052973E1,0E0,0E0,0E0,0E0,0E0,0E0,0E0],"parents":[2147483647,0,0,1,1,2,2,3,3,4,4,7,7,8,8,9,9],"right_children":[2,4,6,8,10,-1,-1,12,14,16,-1,-1,-1,-1,-1,-1,-1],"split_conditions":[2.721E3,9.13015E1,1.92E1,5.55E1,1.752E3,7.0705E-1,3.0056698E-2,1.3200001E1,3.495E1,2.584E2,4.5701882E-1,5.1344776E-1,-4.2437345E-1,-2.4198592E-1,-5.736305E-1,1.6675954E-1,-5.3271186E-1],"split_indices":[0,7,2,6,3,0,0,2,8,5,0,0,0,0,0,0,0],"split_type":[0,0,0,0,0,0,0,0,0,0,0,0,0,0,0,0,0],"sum_hessian":[1.706372E2,1.2790919E2,4.2728016E1,1.08726616E2,1.9182575E1,3.8383507E1,4.3445096E0,1.7651045E1,9.107557E1,1.373137E1,5.451206E0,4.903793E0,1.27472515E1,1.8362518E1,7.271305E1,9.399298E0,4.3320723E0],"tree_param":{"num_deleted":"0","num_feature":"10","num_nodes":"17","size_leaf_vector":"0"}},{"base_weights":[-1.0528113E-1,-4.8726633E-1,9.1182846E-1,8.0984557E-1,-8.143519E-1,-3.625751E-1,1.1758304E0,-0E0,1.2263188E0,4.5447856E-1,-1.0671643E0,2.131511E-1,1.2914472E0,-3.5837325E-1,1.3914843E0,-1.1904376E0,6.2878114E-1],"categories":[],"categories_nodes":[],"categories_segments":[],"categories_sizes":[],"default_left":[1,1,1,1,1,0,1,0,0,1,1,0,0,0,0,0,0],"id":2,"left_children":[1,3,5,7,9,-1,11,-1,-1,13,15,-1,-1,-1,-1,-1,-1],"loss_changes":[5.7579556E1,4.6938316E1,1.472504E1,6.5654373E0,2.939611E1,0E0,2.0143547E0,0E0,0E0,1.2728876E1,1.6889153E1,0E0,0E0,0E0,0E0,0E0,0E0],"parents":[2147483647,0,0,1,1,2,2,3,3,4,4,6,6,9,9,10,10],"right_children":[2,4,6,8,10,-1,12,-1,-1,14,16,-1,-1,-1,-1,-1,-1],"split_conditions":[1.622E3,1.255E1,4.665E1,4.025E1,2.55E0,-1.4503005E-1,2.5265E1,-0E0,4.9052754E-1,3.675E2,2.174635E2,8.526044E-2,5.1657885E-1,-1.433493E-1,5.565937E-1,-4.7617504E-1,2.5151247E-1],"split_indices":[0,2,1,5,5,0,4,0,0,0,7,0,0,0,0,0,0],"split_type":[0,0,0,0,0,0,0,0,0,0,0,0,0,0,0,0,0],"sum_hessian":[1.4715115E2,1.0806895E2,3.9082214E1,2.0850319E1,8.721863E1,5.9927034E0,3.308951E1,7.955412E0,1.2894907E1,1.3701163E1,7.351746E1,4.7801986E0,2.8309313E1,7.0958357E0,6.605328E0,6.936336E1,4.1541066E0],"tree_param":{"num_deleted":"0","num_feature":"10","num_nodes":"17","size_leaf_vector":"0"}},{"base_weights":[-1.3748966E-1,-4.157965E-1,8.095723E-1,4.3157935E-1,-7.7826357E-1,-0E0,1.0194113E0,-6.48519E-1,1.005096E0,-9.6034056E-1,1.0837127E-1,1.1764688E0,2.5159985E-1,-0E0,-1.0759672E0,1.5021849E0,-2.8897965E-1,-1.1886795E0,-1.6650459E-1,9.869583E-1,-3.2562286E-1],"categories":[],"categories_nodes":[],"categories_segments":[],"categories_sizes":[],"default_left":[1,1,1,1,1,0,1,1,1,1,1,0,0,0,0,0,0,0,0,0,0],"id":3,"left_children":[1,3,5,7,9,-1,11,13,15,17,19,-1,-1,-1,-1,-1,-1,-1,-1,-1,-1],"loss_changes":[3.4548492E1,3.230358E1,4.6291466E0,2.0001318E1,1.2787739E1,0E0,1.0447655E0,2.7157092E0,1.5171246E1,9.656422E0,5.7296934E0,0E0,0E0,0E0,0E0,0E0,0E0,0E0,0E0,0E0,0E0],"parents":[2147483647,0,0,1,1,2,2,3,3,4,4,6,6,7,7,8,8,9,9,10,10],"right_children":[2,4,6,8,10,-1,12,14,16,18,20,-1,-1,-1,-1,-1,-1,-1,-1,-1,-1],"split_conditions":[2.6375E3,1.315E1,4.805E1,3.95E2,9.2330505E1,-0E0,1.645E1,3.495E1,1.0675E3,5.005E1,1.089265E2,4.7058755E-1,1.0063994E-1,-0E0,-4.3038687E-1,6.0087395E-1,-1.1559186E-1,-4.754718E-1,-6.6601835E-2,3.9478335E-1,-1.3024914E-1],"split_indices":[0,2,1,0,7,0,2,8,0,1,7,0,0,0,0,0,0,0,0,0,0],"split_type":[0,0,0,0,0,0,0,0,0,0,0,0,0,0,0,0,0,0,0,0,0],"sum_hessian":[1.3029398E2,1.0195113E2,2.8342846E1,2.9660725E1,7.229041E1,6.3822293E0,2.1960617E1,9.637017E0,2.0023708E1,6.0840996E1,1.1449414E1,1.6708263E1,5.2523527E0,4.4269814E0,5.210036E0,1.4908782E1,5.1149254E0,4.588542E1,1.4955572E1,4.126232E0,7.3231826E0],"tree_param":{"num_deleted":"0","num_feature":"10","num_nodes":"21","size_leaf_vector":"0"}},{"base_weights":[-1.7080063E-1,-3.4607914E-1,8.8573974E-1,3.8664675E-1,-5.84674E-1,2.0066985E-1,1.0561588E0,-3.7927794E-1,7.745854E-1,-7.667017E-1,5.8504236E-1,2.4160917E-1,1.1828017E0,2.0154E-4,-9.123626E-1],"categories":[],"categories_nodes":[],"categories_segments":[],"categories_sizes":[],"default_left":[1,1,1,1,1,1,1,0,1,1,0,0,0,0,0],"id":4,"left_children":[1,3,-1,7,9,-1,-1,-1,11,13,-1,-1,-1,-1,-1],"loss_changes":[1.7452967E1,1.5012251E1,5.579853E-2,6.652436E0,1.4336954E1,0E0,0E0,0E0,1.44837E0,7.2661324E0,0E0,0E0,0E0,0E0,0E0],"parents":[2147483647,0,0,1,1,2,2,3,3,4,4,8,8,9,9],"right_children":[2,4,-1,8,10,-1,-1,-1,12,14,-1,-1,-1,-1,-1],"split_conditions":[5.65E1,1.255E1,3.542959E-1,3.66E1,3.6309998E2,8.026794E-2,4.224635E-1,-1.5171118E-1,6.08E1,1.176E0,2.3401694E-1,9.664367E-2,4.731207E-1,8.0616E-5,-3.6494502E-1],"split_indices":[1,2,4,8,5,2147483647,2147483647,0,6,7,0,0,0,0,0],"split_type":[0,0,0,0,0,0,0,0,0,0,0,0,0,0,0],"sum_hessian":[9.450303E1,8.2444534E1,1.20585E1,1.9069696E1,6.3374836E1,4.00483E0,8.053671E0,5.552246E0,1.351745E1,5.5878624E1,7.496212E0,7.6157303E0,5.9017196E0,7.982767E0,4.7895855E1],"tree_param":{"num_deleted":"2","num_feature":"10","num_nodes":"15","size_leaf_vector":"0"}},{"base_weights":[-4.683011E-2,5.120405E-1,-4.0994313E-1,-9.938405E-1,8.5838443E-1,5.8774E-1,-7.062331E-1,1.1788361E0,-3.4819368E-1,1.6053674E0,-9.083662E-1,-8.841314E-1,2.632075E-1,3.8997227E-1,1.3029276E0,-1.0087209E0,-0E0],"categories":[],"categories_nodes":[],"categories_segments":[],"categories_sizes":[],"default_left":[1,1,1,0,1,1,1,1,0,0,0,1,0,0,0,0,0],"id":5,"left_children":[1,3,5,-1,7,9,11,13,-1,-1,-1,15,-1,-1,-1,-1,-1],"loss_changes":[1.8660599E1,1.9162872E1,1.7399862E1,0E0,1.2774656E1,2.1700445E1,8.652252E0,1.9268417E-1,0E0,0E0,0E0,4.940567E0,0E0,0E0,0E0,0E0,0E0],"parents":[2147483647,0,0,1,1,2,2,4,4,5,5,6,6,7,7,11,11],"right_children":[2,4,6,-1,8,10,12,14,-1,-1,-1,16,-1,-1,-1,-1,-1],"split_conditions":[5.65E1,6.05E2,5.9E0,-3.9753622E-1,1.575E1,2.5685001E1,3.583E2,4.915E1,-1.3927747E-1,6.42147E-1,-3.633465E-1,5.45E1,1.05283E-1,1.5598892E-1,5.2117103E-1,-4.0348837E-1,-0E0],"split_indices":[6,0,5,0,2,4,5,1,0,0,0,1,0,0,0,0,0],"split_type":[0,0,0,0,0,0,0,0,0,0,0,0,0,0,0,0,0],"sum_hessian":[9.0423134E1,3.4365997E1,5.6057133E1,5.5365615E0,2.8829437E1,1.1837739E1,4.4219395E1,2.3452528E1,5.3769093E0,7.399851E0,4.4378877E0,3.8308983E1,5.910411E0,4.8461547E0,1.8606373E1,3.4053867E1,4.255114E0],"tree_param":{"num_deleted":"0","num_feature":"10","num_nodes":"17","size_leaf_vector":"0"}},{"base_weights":[1.1268828E-1,-6.1163914E-1,6.5834576E-1,-9.3681514E-1,1.643644E-1,-8.6035633E-1,8.9668834E-1,-0E0,-1.1838872E0,6.3694316E-1,-2.0220354E-1,2.213968E-1,1.3234508E0,1.0268034E0,-3.5352476E-2,7.9869646E-1,2.6513572E0],"categories":[],"categories_nodes":[],"categories_segments":[],"categories_sizes":[],"default_left":[1,1,1,1,1,0,1,0,0,0,0,1,1,0,0,0,0],"id":6,"left_children":[1,3,5,7,9,-1,11,-1,-1,-1,-1,13,15,-1,-1,-1,-1],"loss_changes":[3.1642895E1,9.41538E0,1.7560858E1,6.332594E0,2.274512E0,0E0,9.996159E0,0E0,0E0,0E0,0E0,4.751951E0,1.1193447E1,0E0,0E0,0E0,0E0],"parents":[2147483647,0,0,1,1,2,2,3,3,4,4,6,6,11,11,12,12],"right_children":[2,4,6,8,10,-1,12,-1,-1,-1,-1,14,16,-1,-1,-1,-1],"split_conditions":[2.7735E1,6.98425E1,2.755E2,5.515E1,1.265E0,-3.4414253E-1,3.11195E1,-0E0,-4.735549E-1,2.5477728E-1,-8.088142E-2,6.3999996E0,6.25E1,4.1072136E-1,-1.4140991E-2,3.194786E-1,1.060543E0],"split_indices":[4,7,0,6,9,0,7,0,0,0,0,5,6,0,0,0,0],"split_type":[0,0,0,0,0,0,0,0,0,0,0,0,0,0,0,0,0],"sum_hessian":[7.792404E1,3.2641216E1,4.528282E1,2.3764416E1,8.876801E0,5.219451E0,4.006337E1,4.739711E0,1.9024706E1,4.747174E0,4.1296268E0,1.7009785E1,2.3053585E1,4.328174E0,1.2681611E1,1.8211433E1,4.8421516E0],"tree_param":{"num_deleted":"0","num_feature":"10","num_nodes":"17","size_leaf_vector":"0"}},{"base_weights":[4.543517E-2,1.6794734E-1,-1.0176084E0,6.8183357E-1,-5.9321184E-2,-1.7354071E-1,1.4416296E0,-2.762338E-1,9.5059717E-1,1.734595E-1,-5.530503E-1,3.4045693E-1,1.8462629E0,2.1958254E-1,-6.5740675E-1],"categories":[],"categories_nodes":[],"categories_segments":[],"categories_sizes":[],"default_left":[1,1,0,1,1,1,1,1,0,0,0,0,0,0,0],"id":7,"left_children":[1,3,-1,5,7,9,11,13,-1,-1,-1,-1,-1,-1,-1],"loss_changes":[9.272503E0,8.863432E0,0E0,1.6440353E1,1.0159205E1,1.9338831E0,2.9263477E0,8.39005E0,0E0,0E0,0E0,0E0,0E0,0E0,0E0],"parents":[2147483647,0,0,1,1,3,3,4,4,5,5,6,6,7,7],"right_children":[2,4,-1,6,8,10,12,14,-1,-1,-1,-1,-1,-1,-1],"split_conditions":[1.93E1,2.5725E1,-4.0704337E-1,2.4485E1,5.615E1,1.195E0,5.85E1,5.65E1,3.8023886E-1,6.93838E-2,-2.2122012E-1,1.3618277E-1,7.385052E-1,8.783302E-2,-2.629627E-1],"split_indices":[2,4,0,4,1,9,6,6,0,0,0,0,0,0,0],"split_type":[0,0,0,0,0,0,0,0,0,0,0,0,0,0,0],"sum_hessian":[7.540958E1,6.921544E1,6.194136E0,2.1960226E1,4.725521E1,1.00742E1,1.1886025E1,4.031329E1,6.941924E0,4.169669E0,5.9045305E0,4.352866E0,7.5331593E0,1.6565681E1,2.3747608E1],"tree_param":{"num_deleted":"0","num_feature":"10","num_nodes":"15","size_leaf_vector":"0"}},{"base_weights":[3.0516611E-2,-5.765699E-1,3.3554435E-1,-9.2732084E-1,3.8716048E-1,-7.5615406E-1,6.81303E-1,-1.2204897E0,-0E0,-9.8448735E-1,-1.2915629E-1,1.0127395E0,-7.879663E-3,6.379665E-1,1.6878414E0,-9.608824E-1,9.714557E-1],"categories":[],"categories_nodes":[],"categories_segments":[],"categories_sizes":[],"default_left":[1,1,1,1,0,1,1,0,0,0,0,1,1,0,0,0,0],"id":8,"left_children":[1,3,5,7,-1,9,11,-1,-1,-1,-1,13,15,-1,-1,-1,-1],"loss_changes":[1.2574951E1,8.358425E0,1.8217854E1,4.7567577E0,0E0,3.4930706E-1,9.462206E0,0E0,0E0,0E0,0E0,3.166973E0,1.2145718E1,0E0,0E0,0E0,0E0],"parents":[2147483647,0,0,1,1,2,2,3,3,5,5,6,6,11,11,12,12],"right_children":[2,4,6,8,-1,10,12,-1,-1,-1,-1,14,16,-1,-1,-1,-1],"split_conditions":[4.655E1,1.91E1,2.5455E1,3.1650002E1,1.5486419E-1,1.9834E1,1.4975E0,-4.881959E-1,-0E0,-3.9379495E-1,-5.1662516E-2,1.385E0,9.05645E1,2.5518662E-1,6.7513657E-1,-3.8435298E-1,3.885823E-1],"split_indices":[1,2,4,4,0,7,9,0,0,0,0,9,7,0,0,0,0],"split_type":[0,0,0,0,0,0,0,0,0,0,0,0,0,0,0,0,0],"sum_hessian":[6.7164116E1,2.1066853E1,4.6097267E1,1.6233913E1,4.8329396E0,1.0106831E1,3.5990437E1,1.2142235E1,4.0916777E0,5.821688E0,4.2851424E0,2.4965658E1,1.1024777E1,1.8256874E1,6.708785E0,6.114565E0,4.910212E0],"tree_param":{"num_deleted":"0","num_feature":"10","num_nodes":"17","size_leaf_vector":"0"}},{"base_weights":[8.8707946E-2,1.1945143E0,-3.731117E-2,-5.131711E-1,5.2599025E-1,2.3029022E-1,-8.114932E-1,1.131053E0,-1.9668465E-2,-0E0,-1.021555E0,9.989602E-2,1.8615115E0,-7.460117E-1,4.9950632E-1],"categories":[],"categories_nodes":[],"categories_segments":[],"categories_sizes":[],"default_left":[1,0,1,1,1,0,1,1,1,0,0,0,0,0,0],"id":9,"left_children":[1,-1,3,5,7,-1,9,11,13,-1,-1,-1,-1,-1,-1],"loss_changes":[8.988586E0,0E0,1.3745468E1,7.1435785E0,8.5867195E0,0E0,3.9595795E0,6.582876E0,5.138197E0,0E0,0E0,0E0,0E0,0E0,0E0],"parents":[2147483647,0,0,2,2,3,3,4,4,6,6,7,7,8,8],"right_children":[2,-1,4,6,8,-1,10,12,14,-1,-1,-1,-1,-1,-1],"split_conditions":[9.15E-1,4.778057E-1,1.2545E2,2.35E0,7.755E2,9.211609E-2,1.2049999E1,5.985E2,2.713E3,-0E0,-4.08622E-1,3.995841E-2,7.446046E-1,-2.9840466E-1,1.9980253E-1],"split_indices":[9,0,5,5,0,0,2,0,0,0,0,0,0,0,0],"split_type":[0,0,0,0,0,0,0,0,0,0,0,0,0,0,0],"sum_hessian":[5.487846E1,5.5586123E0,4.9319847E1,2.774552E1,2.1574327E1,7.0505395E0,2.069498E1,1.0590596E1,1.0983732E1,4.210665E0,1.6484314E1,5.43044E0,5.1601567E0,5.199154E0,5.784578E0],"tree_param":{"num_deleted":"0","num_feature":"10","num_nodes":"15","size_leaf_vector":"0"}},{"base_weights":[1.4241308E-1,-1.4424512E-1,7.378412E-1,-8.1168115E-1,1.6479202E-1,-5.942126E-1,1.2264329E0,-1.0891831E0,-0E0,-6.0617715E-1,4.3775612E-1,5.072295E-1,2.2306318E0,6.3386506E-1,-0E0,8.601167E-1,-0E0],"categories":[],"categories_nodes":[],"categories_segments":[],"categories_sizes":[],"default_left":[1,1,1,1,1,0,1,0,0,0,1,1,0,0,0,0,0],"id":10,"left_children":[1,3,5,7,9,-1,11,-1,-1,-1,13,15,-1,-1,-1,-1,-1],"loss_changes":[9.863335E0,8.194105E0,1.3560048E1,1.8175077E0,5.2263722E0,0E0,6.6674633E0,0E0,0E0,0E0,1.9903576E0,1.0364404E0,0E0,0E0,0E0,0E0,0E0],"parents":[2147483647,0,0,1,1,2,2,3,3,4,4,6,6,10,10,11,11],"right_children":[2,4,6,8,10,-1,12,-1,-1,-1,14,16,-1,-1,-1,-1,-1],"split_conditions":[6.275E1,4.815E1,2.385E2,7.48E2,5.135E2,-2.3768504E-1,4.74E1,-4.3567324E-1,-0E0,-2.4247086E-1,3.835E1,2.94E2,8.9225274E-1,2.5354603E-1,-0E0,3.4404668E-1,-0E0],"split_indices":[6,1,3,3,0,0,1,0,0,0,8,3,0,0,0,0,0],"split_type":[0,0,0,0,0,0,0,0,0,0,0,0,0,0,0,0,0],"sum_hessian":[5.26857E1,3.4941853E1,1.7743847E1,1.1567841E1,2.3374012E1,4.154502E0,1.3589345E1,7.5116434E0,4.056197E0,4.8346515E0,1.853936E1,9.375545E0,4.213801E0,1.3273042E1,5.266319E0,4.0092926E0,5.3662515E0],"tree_param":{"num_deleted":"0","num_feature":"10","num_nodes":"17","size_leaf_vector":"0"}},{"base_weights":[2.560621E-1,5.4170203E-1,-2.149135E-1,1.7214983E0,2.9603946E-1,3.441227E-2,-8.616217E-1,-2.1595733E-2,7.5682586E-1,-3.5036236E-1,1.0596408E0,-3.2958397E-1,4.5275298E-1,-0E0,1.0799882E0,-0E0,-5.01983E-1],"categories":[],"categories_nodes":[],"categories_segments":[],"categories_sizes":[],"default_left":[1,1,1,0,1,1,0,1,1,1,0,0,0,0,0,0,0],"id":11,"left_children":[1,3,5,-1,7,9,-1,11,13,15,-1,-1,-1,-1,-1,-1,-1],"loss_changes":[8.213954E0,8.359343E0,4.27532E0,0E0,5.581135E0,7.0558476E0,0E0,2.8340318E0,3.8941183E0,4.1646874E-1,0E0,0E0,0E0,0E0,0E0,0E0,0E0],"parents":[2147483647,0,0,1,1,2,2,4,4,5,5,7,7,8,8,9,9],"right_children":[2,4,6,-1,8,10,-1,12,14,16,-1,-1,-1,-1,-1,-1,-1],"split_conditions":[6.025E1,1.1665001E0,4.335E2,6.885993E-1,9.03845E1,3.515E2,-3.446487E-1,4.285E3,2.816E1,2.105E2,4.2385632E-1,-1.318336E-1,1.8110119E-1,-0E0,4.319953E-1,-0E0,-2.0079319E-1],"split_indices":[6,7,3,0,7,3,0,0,4,3,0,0,0,0,0,0,0],"split_type":[0,0,0,0,0,0,0,0,0,0,0,0,0,0,0,0,0],"sum_hessian":[5.676242E1,3.6561485E1,2.0200935E1,4.5641117E0,3.1997375E1,1.4147238E1,6.0536966E0,1.822039E1,1.3776984E1,1.0056019E1,4.0912194E0,1.2510701E1,5.70969E0,4.1816244E0,9.59536E0,4.0174117E0,6.038607E0],"tree_param":{"num_deleted":"0","num_feature":"10","num_nodes":"17","size_leaf_vector":"0"}},{"base_weights":[5.141176E-3,-3.587574E-1,2.1733452E-1,-9.444127E-1,-0E0,1.0969515E0,-0E0,7.638726E-1,-4.746312E-1,-6.6285324E-1,4.8365188E-1,-1.0592154E0,2.1710712E-2,-1.0957674E0,-1.4031973E-1,7.806544E-1,-1.8170907E-1],"categories":[],"categories_nodes":[],"categories_segments":[],"categories_sizes":[],"default_left":[1,1,1,0,1,0,1,0,1,1,1,0,0,0,0,0,0],"id":12,"left_children":[1,3,5,-1,7,-1,9,-1,11,13,15,-1,-1,-1,-1,-1,-1],"loss_changes":[4.2477345E0,3.5704522E0,8.142486E0,0E0,5.089884E0,0E0,1.0215944E1,0E0,3.7584836E0,1.7756586E0,4.1770463E0,0E0,0E0,0E0,0E0,0E0,0E0],"parents":[2147483647,0,0,1,1,2,2,4,4,6,6,8,8,9,9,10,10],"right_children":[2,4,6,-1,8,-1,10,-1,12,14,16,-1,-1,-1,-1,-1,-1],"split_conditions":[1.0434E1,4.64E1,4.305E1,-3.777651E-1,4.795E1,4.387806E-1,5.005E1,3.0554906E-1,2.848E1,2.1220001E2,1.575E1,-4.2368618E-1,8.684285E-3,-4.3830696E-1,-5.6127895E-2,3.1226176E-1,-7.2683625E-2],"split_indices":[7,1,1,0,1,0,1,0,4,5,2,0,0,0,0,0,0],"split_type":[0,0,0,0,0,0,0,0,0,0,0,0,0,0,0,0,0],"sum_hessian":[5.48322E1,1.8206232E1,3.6625965E1,5.774664E0,1.2431568E1,7.243747E0,2.938222E1,4.133107E0,8.298461E0,1.2993516E1,1.6388702E1,4.2149043E0,4.0835567E0,5.4595494E0,7.5339665E0,1.2250163E1,4.1385393E0],"tree_param":{"num_deleted":"0","num_feature":"10","num_nodes":"17","size_leaf_vector":"0"}},{"base_weights":[2.2804663E-1,7.6060265E-1,-2.411019E-2,1.4063959E0,3.0052012E-1,-8.1481355E-1,1.8283488E-1,-4.2567822E-1,8.0355513E-1,7.282032E-1,-1.7182083E-1,9.7752553E-1,2.4471726E-1,-7.3503286E-1,4.6364138E-1],"categories":[],"categories_nodes":[],"categories_segments":[],"categories_sizes":[],"default_left":[1,1,1,0,1,0,1,0,0,1,1,1,1,0,0],"id":13,"left_children":[1,3,5,-1,7,-1,9,-1,-1,-1,13,-1,-1,-1,-1],"loss_changes":[7.9067993E0,3.343052E0,6.645463E0,0E0,5.4440584E0,0E0,6.1396904E0,0E0,0E0,3.5933018E-2,6.624068E0,0E0,0E0,0E0,0E0],"parents":[2147483647,0,0,1,1,2,2,4,4,6,6,9,9,10,10],"right_children":[2,4,6,-1,8,-1,10,-1,-1,-1,14,-1,-1,-1,-1],"split_conditions":[3.495E1,2.025E2,4.575E1,5.6255835E-1,5.005E1,-3.2592544E-1,1.355E1,-1.7027129E-1,3.2142207E-1,2.9128128E-1,9.4438E1,3.9101022E-1,9.7886905E-2,-2.9401314E-1,1.8545656E-1],"split_indices":[8,0,1,0,1,0,2,0,0,2,7,2147483647,2147483647,0,0],"split_type":[0,0,0,0,0,0,0,0,0,0,0,0,0,0,0],"sum_hessian":[5.225857E1,1.7418995E1,3.4839577E1,5.486929E0,1.1932066E1,7.6199293E0,2.7219648E1,4.1323347E0,7.7997313E0,1.142198E1,1.5797668E1,5.497109E0,5.924871E0,9.126125E0,6.6715436E0],"tree_param":{"num_deleted":"2","num_feature":"10","num_nodes":"15","size_leaf_vector":"0"}},{"base_weights":[3.063099E-1,5.392198E-1,-2.1094698E-1,8.6823004E-1,-1.628064E-1,-8.051288E-1,5.348431E-1,-2.5152622E-4,1.1512753E0,-8.524935E-1,5.252769E-1,-1.23204015E-1,-1.1294206E0,2.3048498E-1,1.6658107E0],"categories":[],"categories_nodes":[],"categories_segments":[],"categories_sizes":[],"default_left":[1,1,1,1,1,1,0,0,1,0,0,0,0,0,0],"id":14,"left_children":[1,3,5,7,9,11,-1,-1,13,-1,-1,-1,-1,-1,-1],"loss_changes":[6.185895E0,8.812774E0,6.9883056E0,7.201174E0,5.937192E0,6.078701E-1,0E0,0E0,6.9254017E0,0E0,0E0,0E0,0E0,0E0,0E0],"parents":[2147483647,0,0,1,1,2,2,3,3,4,4,5,5,8,8],"right_children":[2,4,6,8,10,12,-1,-1,14,-1,-1,-1,-1,-1,-1],"split_conditions":[4.05E1,1.481E0,2.649E3,1.7145E0,4.256E3,1.04628006E2,2.1393724E-1,-1.0061049E-4,6.08E1,-3.4099743E-1,2.1011077E-1,-4.928161E-2,-4.5176825E-1,9.219399E-2,6.663243E-1],"split_indices":[7,9,0,7,0,7,0,0,6,0,0,0,0,0,0],"split_type":[0,0,0,0,0,0,0,0,0,0,0,0,0,0,0],"sum_hessian":[4.6677208E1,3.3488747E1,1.3188462E1,2.3610973E1,9.877774E0,8.042322E0,5.14614E0,5.1807456E0,1.8430227E1,5.539618E0,4.338156E0,4.030499E0,4.0118227E0,7.822633E0,1.06075945E1],"tree_param":{"num_deleted":"0","num_feature":"10","num_nodes":"15","size_leaf_vector":"0"}},{"base_weights":[2.223794E-1,5.055358E-1,-1.9567597E-1,9.279871E-1,-1.2823177E-2,-1.0481492E0,2.7969328E-1,-0E0,1.2679754E0,-7.4187356E-1,7.607206E-1,-0E0,6.639523E-1],"categories":[],"categories_nodes":[],"categories_segments":[],"categories_sizes":[],"default_left":[1,1,1,1,1,0,1,0,0,0,0,0,0],"id":15,"left_children":[1,3,5,7,9,-1,11,-1,-1,-1,-1,-1,-1],"loss_changes":[5.840596E0,7.2911506E0,8.284717E0,5.2313614E0,7.861804E0,0E0,1.7460912E0,0E0,0E0,0E0,0E0,0E0,0E0],"parents":[2147483647,0,0,1,1,2,2,3,3,4,4,6,6],"right_children":[2,4,6,8,10,-1,12,-1,-1,-1,-1,-1,-1],"split_conditions":[8.195E2,4.755E1,4.995E1,3.79E1,6.125E2,-4.192597E-1,6.935E2,-0E0,5.0719017E-1,-2.9674944E-1,3.0428824E-1,-0E0,2.6558092E-1],"split_indices":[0,1,1,8,0,0,3,0,0,0,0,0,0],"split_type":[0,0,0,0,0,0,0,0,0,0,0,0,0],"sum_hessian":[4.4886494E1,2.8062222E1,1.6824272E1,1.6088978E1,1.1973245E1,6.34485E0,1.0479422E1,4.68185E0,1.1407127E1,6.8504853E0,5.1227593E0,5.4814377E0,4.9979844E0],"tree_param":{"num_deleted":"0","num_feature":"10","num_nodes":"13","size_leaf_vector":"0"}},{"base_weights":[2.2248949E-1,-5.73142E-1,3.5180673E-1,-2.3175564E-1,4.6321508E-1,9.159033E-1,1.7637537E-1,-1.1119752E-1,6.8065214E-1],"categories":[],"categories_nodes":[],"categories_segments":[],"categories_sizes":[],"default_left":[1,0,1,0,1,0,1,0,0],"id":16,"left_children":[1,-1,3,-1,5,-1,7,-1,-1],"loss_changes":[5.314822E0,0E0,3.3489084E0,0E0,4.024501E0,0E0,4.6292725E0,0E0,0E0],"parents":[2147483647,0,0,2,2,4,4,6,6],"right_children":[2,-1,4,-1,6,-1,8,-1,-1],"split_conditions":[2.4515E1,-2.292568E-1,2.085E2,-9.270226E-2,2.925E2,3.6636132E-1,1.0835E3,-4.447901E-2,2.7226087E-1],"split_indices":[4,0,3,0,3,0,3,0,0],"split_type":[0,0,0,0,0,0,0,0,0],"sum_hessian":[5.0847427E1,5.54801E0,4.5299416E1,5.649713E0,3.9649704E1,1.3176035E1,2.6473667E1,1.6092873E1,1.03807955E1],"tree_param":{"num_deleted":"0","num_feature":"10","num_nodes":"9","size_leaf_vector":"0"}},{"base_weights":[9.8812595E-2,-2.8157812E-1,5.308632E-1,1.0220657E-1,-7.6882094E-1,-1.5210943E-1,8.0487907E-1,5.316938E-1,-9.123828E-2,-1.2811052E0,3.7080593E-2,2.4672844E-1,1.0429156E0],"categories":[],"categories_nodes":[],"categories_segments":[],"categories_sizes":[],"default_left":[1,1,1,1,1,0,1,0,0,0,0,0,0],"id":17,"left_children":[1,3,5,7,9,-1,11,-1,-1,-1,-1,-1,-1],"loss_changes":[8.501805E0,5.540184E0,5.390574E0,1.6586397E0,6.4784355E0,0E0,9.513941E-1,0E0,0E0,0E0,0E0,0E0,0E0],"parents":[2147483647,0,0,1,1,2,2,3,3,4,4,6,6],"right_children":[2,4,6,8,10,-1,12,-1,-1,-1,-1,-1,-1],"split_conditions":[2.919E1,2.5725E1,4.655E1,5.55E1,1.0765E3,-6.0843773E-2,5.845E1,2.1267752E-1,-3.6495313E-2,-5.1244205E-1,1.4832238E-2,9.8691374E-2,4.1716623E-1],"split_indices":[4,4,1,6,3,0,6,0,0,0,0,0,0],"split_type":[0,0,0,0,0,0,0,0,0,0,0,0,0],"sum_hessian":[4.830415E1,2.4642162E1,2.3661987E1,1.3078523E1,1.156364E1,5.8576093E0,1.7804379E1,5.123711E0,7.954812E0,7.4678025E0,4.095837E0,7.187829E0,1.0616549E1],"tree_param":{"num_deleted":"0","num_feature":"10","num_nodes":"13","size_leaf_vector":"0"}},{"base_weights":[1.8149976E-1,-4.6020868E-1,3.2617587E-1,8.215021E-1,9.516921E-2,1.2216172E0,-0E0,-2.8093678E-1,5.38089E-1,1.4017941E-1,-8.469124E-1,8.611961E-1,-0E0],"categories":[],"categories_nodes":[],"categories_segments":[],"categories_sizes":[],"default_left":[1,0,1,1,1,0,0,1,1,0,0,0,0],"id":18,"left_children":[1,-1,3,5,7,-1,-1,9,11,-1,-1,-1,-1],"loss_changes":[4.3252964E0,0E0,3.5515556E0,2.8621945E0,5.3398952E0,0E0,0E0,4.5067616E0,3.4415355E0,0E0,0E0,0E0,0E0],"parents":[2147483647,0,0,2,2,3,3,4,4,7,7,8,8],"right_children":[2,-1,4,6,8,-1,-1,10,12,-1,-1,-1,-1],"split_conditions":[1.195E1,-1.8408348E-1,1.013E0,2.84E2,1.526E0,4.886469E-1,-0E0,1.325E1,1.765E0,5.6071766E-2,-3.3876497E-1,3.4447846E-1,-0E0],"split_indices":[2,0,9,0,9,0,0,5,9,0,0,0,0],"split_type":[0,0,0,0,0,0,0,0,0,0,0,0,0],"sum_hessian":[4.541562E1,6.68251E0,3.873311E1,1.0129116E1,2.860399E1,5.9506907E0,4.178426E0,1.4445523E1,1.4158467E1,7.7010164E0,6.744507E0,9.55811E0,4.6003575E0],"tree_param":{"num_deleted":"0","num_feature":"10","num_nodes":"13","size_leaf_vector":"0"}},{"base_weights":[-6.5311496E-3,-3.232871E-1,2.739968E-1,-8.706193E-1,-0E0,-1.9346443E-1,6.430402E-1,3.807027E-1,-2.6053748E-1,2.6779547E-1,-7.7472496E-1,-0E0,1.0004891E0,5.0308723E-2,-6.534803E-1],"categories":[],"categories_nodes":[],"categories_segments":[],"categories_sizes":[],"default_left":[1,1,1,0,1,1,1,0,1,0,0,0,0,0,0],"id":19,"left_children":[1,3,5,-1,7,9,11,-1,13,-1,-1,-1,-1,-1,-1],"loss_changes":[4.176659E0,4.1148386E0,4.5368395E0,0E0,1.6622356E0,3.3171213E0,3.591569E0,0E0,1.8640882E0,0E0,0E0,0E0,0E0,0E0,0E0],"parents":[2147483647,0,0,1,1,2,2,4,4,5,5,6,6,8,8],"right_children":[2,4,6,-1,8,10,12,-1,14,-1,-1,-1,-1,-1,-1],"split_conditions":[1.465E1,5.135E2,2.95165E1,-3.4824774E-1,5.65E1,5.65E1,6.17E1,1.5228109E-1,9.5E0,1.0711819E-1,-3.0989E-1,-0E0,4.0019566E-1,2.012349E-2,-2.6139212E-1],"split_indices":[2,0,7,0,6,6,6,0,5,0,0,0,0,0,0],"split_type":[0,0,0,0,0,0,0,0,0,0,0,0,0,0,0],"sum_hessian":[4.4451717E1,2.2480415E1,2.19713E1,7.6663256E0,1.481409E1,8.707593E0,1.3263708E1,5.7601123E0,9.053978E0,4.196412E0,4.5111814E0,4.7833643E0,8.480343E0,4.1210213E0,4.9329567E0],"tree_param":{"num_deleted":"0","num_feature":"10","num_nodes":"15","size_leaf_vector":"0"}},{"base_weights":[-3.42259E-2,1.5923655E-1,-4.1082197E-1,-0E0,4.5870668E-1,8.7227285E-2,-9.534559E-1,4.5094612E-1,-1.894614E-1,7.0726196E-3,-6.140721E-1],"categories":[],"categories_nodes":[],"categories_segments":[],"categories_sizes":[],"default_left":[1,1,1,1,0,0,0,0,1,0,0],"id":20,"left_children":[1,3,5,7,-1,-1,-1,-1,9,-1,-1],"loss_changes":[2.9120405E0,8.76824E-1,4.765815E0,1.6169853E0,0E0,0E0,0E0,0E0,1.5909734E0,0E0,0E0],"parents":[2147483647,0,0,1,1,2,2,3,3,8,8],"right_children":[2,4,6,8,-1,-1,-1,-1,10,-1,-1],"split_conditions":[6.04E1,1.655E0,2.548E1,1.0085E0,1.8348268E-1,3.4890916E-2,-3.8138238E-1,1.8037845E-1,5.82E2,2.8290479E-3,-2.4562883E-1],"split_indices":[6,9,4,9,0,0,0,0,3,0,0],"split_type":[0,0,0,0,0,0,0,0,0,0,0],"sum_hessian":[3.4618126E1,2.1496758E1,1.3121368E1,1.5618541E1,5.878217E0,6.318452E0,6.802917E0,4.8794675E0,1.0739073E1,6.403441E0,4.3356323E0],"tree_param":{"num_deleted":"0","num_feature":"10","num_nodes":"11","size_leaf_vector":"0"}},{"base_weights":[3.366587E-1,9.287179E-1,5.2883405E-2,1.665374E-1,1.2884914E0,-1.7005491E-1,5.892948E-1,3.8941637E-2,-8.4769964E-1,-2.120037E-1,5.1301086E-1],"categories":[],"categories_nodes":[],"categories_segments":[],"categories_sizes":[],"default_left":[1,1,1,0,0,1,0,1,0,0,0],"id":21,"left_children":[1,3,5,-1,-1,7,-1,9,-1,-1,-1],"loss_changes":[6.4497786E0,1.9565067E0,4.382086E0,0E0,0E0,3.9966242E0,0E0,2.4147437E0,0E0,0E0,0E0],"parents":[2147483647,0,0,1,1,2,2,5,5,7,7],"right_children":[2,4,6,-1,-1,8,-1,10,-1,-1,-1],"split_conditions":[1.235E1,1.195E1,2.721E3,6.661496E-2,5.1539654E-1,1.605E1,2.3571792E-1,1.465E1,-3.3907986E-1,-8.480148E-2,2.0520435E-1],"split_indices":[2,2,0,0,0,2,0,2,0,0,0],"split_type":[0,0,0,0,0,0,0,0,0,0,0],"sum_hessian":[4.352363E1,1.2223756E1,3.1299871E1,5.2801576E0,6.9435983E0,2.1276052E1,1.0023819E1,1.5853434E1,5.4226193E0,9.348351E0,6.5050826E0],"tree_param":{"num_deleted":"0","num_feature":"10","num_nodes":"11","size_leaf_vector":"0"}},{"base_weights":[2.0854124E-1,3.7456486E-1,-3.6015308E-1,6.206913E-1,-3.6362708E-1,-0E0,7.765458E-1,-0E0,1.0085615E0],"categories":[],"categories_nodes":[],"categories_segments":[],"categories_sizes":[],"default_left":[1,1,0,1,0,0,1,0,0],"id":22,"left_children":[1,3,-1,5,-1,-1,7,-1,-1],"loss_changes":[3.6498318E0,6.0331006E0,0E0,2.6928377E0,0E0,0E0,2.771841E0,0E0,0E0],"parents":[2147483647,0,0,1,1,3,3,6,6],"right_children":[2,4,-1,6,-1,-1,8,-1,-1],"split_conditions":[5.105E1,3.0385E1,-1.4406124E-1,2.454E1,-1.4545083E-1,-0E0,5.85E1,-0E0,4.034246E-1],"split_indices":[1,4,0,4,0,0,6,0,0],"split_type":[0,0,0,0,0,0,0,0,0],"sum_hessian":[3.6075222E1,2.9548624E1,6.526598E0,2.3295364E1,6.2532587E0,4.3080587E0,1.8987307E1,5.413272E0,1.3574034E1],"tree_param":{"num_deleted":"0","num_feature":"10","num_nodes":"9","size_leaf_vector":"0"}},{"base_weights":[9.812914E-2,-4.2182705E-1,3.045557E-1,-9.819747E-1,1.3693848E-1,7.6601654E-1,1.0399608E-2,-4.2594817E-1,2.3592359E-1,-2.3615725E-1,5.393135E-1],"categories":[],"categories_nodes":[],"categories_segments":[],"categories_sizes":[],"default_left":[1,1,1,0,0,0,1,0,1,0,0],"id":23,"left_children":[1,3,5,-1,-1,-1,7,-1,9,-1,-1],"loss_changes":[4.1748004E0,4.130244E0,3.2505329E0,0E0,0E0,0E0,1.9268686E0,0E0,2.6738486E0,0E0,0E0],"parents":[2147483647,0,0,1,1,2,2,6,6,8,8],"right_children":[2,4,6,-1,-1,-1,8,-1,10,-1,-1],"split_conditions":[1.135E0,1.325E1,1.2535E0,-3.927899E-1,5.4775394E-2,3.0640662E-1,2.5455E1,-1.7037927E-1,1.4890001E0,-9.44629E-2,2.157254E-1],"split_indices":[9,2,9,0,0,0,4,0,9,0,0],"split_type":[0,0,0,0,0,0,0,0,0,0,0],"sum_hessian":[3.7791527E1,9.066536E0,2.8724993E1,5.04316E0,4.0233755E0,9.234536E0,1.9490456E1,4.827432E0,1.4663024E1,4.5338216E0,1.0129203E1],"tree_param":{"num_deleted":"0","num_feature":"10","num_nodes":"11","size_leaf_vector":"0"}},{"base_weights":[5.1564634E-2,-3.2082793E-1,2.8078717E-1,-9.510714E-1,7.351804E-3,1.0426238E0,-0E0,-3.3867082E-1,2.0286763E-1,4.1538575E-1,-0E0],"categories":[],"categories_nodes":[],"categories_segments":[],"categories_sizes":[],"default_left":[1,1,1,0,0,0,1,0,1,0,0],"id":24,"left_children":[1,3,5,-1,-1,-1,7,-1,9,-1,-1],"loss_changes":[3.293273E0,3.6976295E0,5.100375E0,0E0,0E0,0E0,1.401466E0,0E0,8.6368805E-1,0E0,0E0],"parents":[2147483647,0,0,1,1,2,2,6,6,8,8],"right_children":[2,4,6,-1,-1,-1,8,-1,10,-1,-1],"split_conditions":[1.31E1,4.7910004E0,2.42E2,-3.8042855E-1,2.9407216E-3,4.170495E-1,3.685E1,-1.3546833E-1,3.945E1,1.6615431E-1,-0E0],"split_indices":[5,7,3,0,0,0,8,0,8,0,0],"split_type":[0,0,0,0,0,0,0,0,0,0,0],"sum_hessian":[3.699438E1,1.2280842E1,2.4713537E1,4.598628E0,7.682214E0,5.5568047E0,1.9156733E1,6.2169666E0,1.2939767E1,7.330466E0,5.609301E0],"tree_param":{"num_deleted":"0","num_feature":"10","num_nodes":"11","size_leaf_vector":"0"}},{"base_weights":[4.2455826E-2,4.1349036E-1,-2.7888134E-1,-0E0,5.8741784E-1,-3.8419783E-2,-6.928645E-1,1.7833221E-1,9.03675E-1,-4.1458535E-1,3.441254E-1],"categories":[],"categories_nodes":[],"categories_segments":[],"categories_sizes":[],"default_left":[1,1,1,0,1,1,0,0,0,0,0],"id":25,"left_children":[1,3,5,-1,7,9,-1,-1,-1,-1,-1],"loss_changes":[4.5004597E0,9.7274995E-1,1.0595993E0,0E0,3.0064058E-1,2.2473106E0,0E0,0E0,0E0,0E0,0E0],"parents":[2147483647,0,0,1,1,2,2,4,4,5,5],"right_children":[2,4,6,-1,8,10,-1,-1,-1,-1,-1],"split_conditions":[1.195E0,1.03955E1,8.50775E1,-0E0,4.86E1,3.11195E1,-2.771458E-1,7.133289E-2,3.6147E-1,-1.6583414E-1,1.3765016E-1],"split_indices":[9,7,7,0,1,7,0,0,0,0,0],"split_type":[0,0,0,0,0,0,0,0,0,0,0],"sum_hessian":[3.4650726E1,1.7392988E1,1.7257736E1,6.4603353E0,1.0932653E1,1.31360445E1,4.121692E0,6.827281E0,4.105372E0,7.899045E0,5.2369995E0],"tree_param":{"num_deleted":"0","num_feature":"10","num_nodes":"11","size_leaf_vector":"0"}},{"base_weights":[2.1224873E-1,5.9476835E-1,1.4123649E-2,4.7723435E-2,8.388242E-1,2.659357E-1,-3.087924E-1,5.8952004E-1,-0E0,-6.0111713E-1,-0E0,-4.7922492E-1,4.527566E-1],"categories":[],"categories_nodes":[],"categories_segments":[],"categories_sizes":[],"default_left":[1,1,1,0,0,1,1,0,1,0,0,0,0],"id":26,"left_children":[1,3,5,-1,-1,7,9,-1,11,-1,-1,-1,-1],"loss_changes":[1.9450783E0,3.8048506E-1,2.0737605E0,0E0,0E0,1.5548246E0,1.1176991E0,0E0,2.2929482E0,0E0,0E0,0E0,0E0],"parents":[2147483647,0,0,1,1,2,2,5,5,6,6,8,8],"right_children":[2,4,6,-1,-1,8,10,-1,12,-1,-1,-1,-1],"split_conditions":[4.8500004E0,2.05E0,1.3410001E0,1.9089375E-2,3.3552969E-1,5.55E1,1.7344999E0,2.3580801E-1,1.245E0,-2.4044685E-1,-0E0,-1.9168997E-1,1.8110265E-1],"split_indices":[5,5,9,0,0,6,9,0,9,0,0,0,0],"split_type":[0,0,0,0,0,0,0,0,0,0,0,0,0],"sum_hessian":[3.2810276E1,8.790048E0,2.4020227E1,4.344632E0,4.4454155E0,1.5335073E1,8.685153E0,6.798004E0,8.537069E0,4.6489587E0,4.0361943E0,4.3903737E0,4.146696E0],"tree_param":{"num_deleted":"0","num_feature":"10","num_nodes":"13","size_leaf_vector":"0"}},{"base_weights":[4.881482E-1,6.6308117E-1,3.0846918E-2,7.305123E-1,7.5791744E-3,2.7434805E-1,-8.916855E-2],"categories":[],"categories_nodes":[],"categories_segments":[],"categories_sizes":[],"default_left":[1,1,1,0,0,0,0],"id":27,"left_children":[1,3,5,-1,-1,-1,-1],"loss_changes":[2.6871977E0,5.4375935E-1,6.3034153E-1,0E0,0E0,0E0,0E0],"parents":[2147483647,0,0,1,1,2,2],"right_children":[2,4,6,-1,-1,-1,-1],"split_conditions":[4.965E1,4.275E1,5.55E1,2.9220495E-1,3.0316699E-3,1.0973922E-1,-3.566742E-2],"split_indices":[1,8,6,0,0,0,0],"split_type":[0,0,0,0,0,0,0],"sum_hessian":[4.152131E1,2.8125603E1,1.3395708E1,2.4015194E1,4.1104097E0,6.7489614E0,6.646746E0],"tree_param":{"num_deleted":"0","num_feature":"10","num_nodes":"7","size_leaf_vector":"0"}},{"base_weights":[9.022378E-2,-0E0,6.812353E-1,-4.927903E-1,6.827517E-2,5.5083084E-1,-1.8091403E-1,7.573591E-1,1.0974018E-1,-5.936071E-1,1.7027E-1],"categories":[],"categories_nodes":[],"categories_segments":[],"categories_sizes":[],"default_left":[1,1,0,0,1,1,1,1,1,0,0],"id":28,"left_children":[1,3,-1,-1,5,-1,9,-1,-1,-1,-1],"loss_changes":[2.6336188E0,1.5110128E0,0E0,0E0,3.766293E0,4.7320366E-2,3.0557742E0,0E0,0E0,0E0,0E0],"parents":[2147483647,0,0,1,1,4,4,5,5,6,6],"right_children":[2,4,-1,-1,6,-1,10,-1,-1,-1,-1],"split_conditions":[3.78E2,2.085E2,2.7249414E-1,-1.9711612E-1,2.795E2,2.2033234E-1,5.005E1,3.0294365E-1,4.3896075E-2,-2.3744285E-1,6.8108E-2],"split_indices":[5,3,0,0,3,8,1,2147483647,2147483647,0,0],"split_type":[0,0,0,0,0,0,0,0,0,0,0],"sum_hessian":[3.6443737E1,3.111204E1,5.331696E0,4.6959295E0,2.641611E1,9.950145E0,1.6465965E1,4.7445307E0,5.2056146E0,8.561796E0,7.904168E0],"tree_param":{"num_deleted":"2","num_feature":"10","num_nodes":"11","size_leaf_vector":"0"}},{"base_weights":[3.1385288E-2,-2.0938766E-1,1.9054316E-1,3.054394E-1,-7.686026E-1,-1.0747858E-1,4.6512297E-1,3.5692975E-2,-4.2491043E-1,6.93204E-1,-0E0],"categories":[],"categories_nodes":[],"categories_segments":[],"categories_sizes":[],"default_left":[1,1,1,0,0,1,1,0,0,0,0],"id":29,"left_children":[1,3,5,-1,-1,7,9,-1,-1,-1,-1],"loss_changes":[1.2120169E0,3.6760087E0,2.1861858E0,0E0,0E0,8.3559775E-1,1.2288992E0,0E0,0E0,0E0,0E0],"parents":[2147483647,0,0,1,1,2,2,5,5,6,6],"right_children":[2,4,6,-1,-1,8,10,-1,-1,-1,-1],"split_conditions":[5.23E2,1.175E1,1.365E0,1.2217577E-1,-3.0744106E-1,1.325E1,1.566E0,1.427719E-2,-1.6996418E-1,2.772816E-1,-0E0],"split_indices":[0,2,9,0,0,2,9,0,0,0,0],"split_type":[0,0,0,0,0,0,0,0,0,0,0],"sum_hessian":[3.0078701E1,9.344196E0,2.0734505E1,4.170405E0,5.1737914E0,8.488236E0,1.2246268E1,4.2904058E0,4.1978307E0,7.5209517E0,4.725316E0],"tree_param":{"num_deleted":"0","num_feature":"10","num_nodes":"11","size_leaf_vector":"0"}},{"base_weights":[2.577333E-1,5.923945E-1,-0E0,8.9030635E-1,1.1927844E-1,2.1122333E-1,-3.0998164E-1,-0E0,4.1010803E-1,6.965732E-1,-0E0],"categories":[],"categories_nodes":[],"categories_segments":[],"categories_sizes":[],"default_left":[1,1,1,0,0,1,0,0,1,0,0],"id":30,"left_children":[1,3,5,-1,-1,7,-1,-1,9,-1,-1],"loss_changes":[2.6924314E0,9.0083647E-1,1.4341681E0,0E0,0E0,1.0043517E0,0E0,0E0,9.69604E-1,0E0,0E0],"parents":[2147483647,0,0,1,1,2,2,5,5,8,8],"right_children":[2,4,6,-1,-1,8,-1,-1,10,-1,-1],"split_conditions":[4.095E2,6.15E1,3.815E1,3.5612255E-1,4.7711376E-2,4.915E1,-1.2399266E-1,-0E0,5.085E1,2.7862927E-1,-0E0],"split_indices":[0,6,8,0,0,1,0,0,1,0,0],"split_type":[0,0,0,0,0,0,0,0,0,0,0],"sum_hessian":[3.4054745E1,1.3307629E1,2.0747116E1,6.3277383E0,6.979891E0,1.3601171E1,7.1459455E0,4.7563453E0,8.844825E0,4.410788E0,4.4340367E0],"tree_param":{"num_deleted":"0","num_feature":"10","num_nodes":"11","size_leaf_vector":"0"}},{"base_weights":[-1.7278591E-2,-6.8895847E-1,8.607798E-2,3.1735528E-1,-2.3445417E-1,-0E0,7.786722E-1,6.519918E-2,-7.4573475E-1,6.120215E-1,-4.6627265E-1],"categories":[],"categories_nodes":[],"categories_segments":[],"categories_sizes":[],"default_left":[1,0,1,1,1,1,0,0,0,0,0],"id":31,"left_children":[1,-1,3,5,7,9,-1,-1,-1,-1,-1],"loss_changes":[2.9216254E0,0E0,2.2185135E0,2.6087046E0,2.3250399E0,3.7343297E0,0E0,0E0,0E0,0E0,0E0],"parents":[2147483647,0,0,2,2,3,3,4,4,5,5],"right_children":[2,-1,4,6,8,10,-1,-1,-1,-1,-1],"split_conditions":[2.5085E1,-2.755834E-1,8.525E2,4.065E1,3.575E1,2.015E2,3.114689E-1,2.6079673E-2,-2.9829392E-1,2.448086E-1,-1.8650906E-1],"split_indices":[4,0,0,8,8,0,0,0,0,0,0],"split_type":[0,0,0,0,0,0,0,0,0,0,0],"sum_hessian":[3.154622E1,4.741593E0,2.6804626E1,1.7388107E1,9.41652E0,1.1031309E1,6.3567977E0,5.2538996E0,4.162621E0,4.7342157E0,6.297093E0],"tree_param":{"num_deleted":"0","num_feature":"10","num_nodes":"11","size_leaf_vector":"0"}},{"base_weights":[5.199667E-2,-2.1531981E-1,4.0733615E-1,3.0108503E-1,-5.4912496E-1,-0E0,5.5447644E-1,-0E0,-9.6779424E-1,6.343936E-3,7.03447E-1],"categories":[],"categories_nodes":[],"categories_segments":[],"categories_sizes":[],"default_left":[1,1,1,0,1,0,1,0,0,0,0],"id":32,"left_children":[1,3,5,-1,7,-1,9,-1,-1,-1,-1],"loss_changes":[3.4443514E0,3.5267174E0,1.0031047E0,0E0,2.192865E0,0E0,2.684934E-1,0E0,0E0,0E0,0E0],"parents":[2147483647,0,0,1,1,2,2,4,4,6,6],"right_children":[2,4,6,-1,8,-1,10,-1,-1,-1,-1],"split_conditions":[1.1715E2,4.355E1,1.365E0,1.2043401E-1,5.92E1,-0E0,2.6985E1,-0E0,-3.871177E-1,2.5375744E-3,2.813788E-1],"split_indices":[5,1,9,0,6,0,4,0,0,0,0],"split_type":[0,0,0,0,0,0,0,0,0,0,0],"sum_hessian":[3.231604E1,1.7061083E1,1.5254958E1,5.560741E0,1.1500341E1,4.219692E0,1.1035266E1,6.13473E0,5.365612E0,4.0155387E0,7.0197277E0],"tree_param":{"num_deleted":"0","num_feature":"10","num_nodes":"11","size_leaf_vector":"0"}},{"base_weights":[1.2011302E-1,-1.2814261E-1,3.6016726E-1,-5.3326553E-1,1.5311041E-1,5.7549465E-2,6.756275E-1,5.307507E-1,-2.445299E-1],"categories":[],"categories_nodes":[],"categories_segments":[],"categories_sizes":[],"default_left":[1,1,1,0,0,1,0,0,0],"id":33,"left_children":[1,3,5,-1,-1,7,-1,-1,-1],"loss_changes":[2.1275363E0,2.0507483E0,9.545963E-1,0E0,0E0,2.1231084E0,0E0,0E0,0E0],"parents":[2147483647,0,0,1,1,2,2,5,5],"right_children":[2,4,6,-1,-1,8,-1,-1,-1],"split_conditions":[4.805E1,4.045E1,1.0405E3,-2.1330622E-1,6.1244167E-2,9.45E0,2.70251E-1,2.1230029E-1,-9.781196E-2],"split_indices":[1,8,3,0,0,5,0,0,0],"split_type":[0,0,0,0,0,0,0,0,0],"sum_hessian":[3.0032204E1,1.2945202E1,1.7087002E1,6.3942575E0,6.5509443E0,1.0942436E1,6.1445665E0,5.2585E0,5.683936E0],"tree_param":{"num_deleted":"0","num_feature":"10","num_nodes":"9","size_leaf_vector":"0"}},{"base_weights":[2.7348587E-1,3.510339E-1,-0E0,1.4521942E-1,7.986294E-1,-1.6343157E-1,3.8315684E-1,7.1592396E-1,-0E0],"categories":[],"categories_nodes":[],"categories_segments":[],"categories_sizes":[],"default_left":[1,1,0,1,0,0,1,0,0],"id":34,"left_children":[1,3,-1,5,-1,-1,7,-1,-1],"loss_changes":[9.5143867E-1,1.6127291E0,0E0,1.9439716E0,0E0,0E0,1.2517297E0,0E0,0E0],"parents":[2147483647,0,0,1,1,3,3,6,6],"right_children":[2,4,-1,6,-1,-1,8,-1,-1],"split_conditions":[4.075E1,3.935E1,-0E0,4.865E1,3.1945178E-1,-6.537263E-2,1.335E1,2.863696E-1,-0E0],"split_indices":[8,8,0,1,0,0,2,0,0],"split_type":[0,0,0,0,0,0,0,0,0],"sum_hessian":[3.4075485E1,2.8011147E1,6.0643373E0,2.1625746E1,6.3854003E0,7.720764E0,1.3904982E1,5.7114167E0,8.193565E0],"tree_param":{"num_deleted":"0","num_feature":"10","num_nodes":"9","size_leaf_vector":"0"}},{"base_weights":[1.25067E-1,-2.8557895E-2,5.3527707E-1,7.239254E-2,-4.37075E-1,9.679928E-3,7.327644E-1,2.7671337E-1,-1.0311448E-1,5.846882E-1,-0E0],"categories":[],"categories_nodes":[],"categories_segments":[],"categories_sizes":[],"default_left":[1,1,1,1,0,0,0,1,0,0,0],"id":35,"left_children":[1,3,5,7,-1,-1,-1,9,-1,-1,-1],"loss_changes":[2.3312519E0,1.2237282E0,2.5176883E-1,7.3940945E-1,0E0,0E0,0E0,1.1567942E0,0E0,0E0,0E0],"parents":[2147483647,0,0,1,1,2,2,3,3,7,7],"right_children":[2,4,6,8,-1,-1,-1,10,-1,-1,-1],"split_conditions":[8.44915E1,1.4345E0,3.96E1,1.77E1,-1.7483E-1,3.8719715E-3,2.9310578E-1,1.21E1,-4.1245792E-2,2.3387527E-1,-0E0],"split_indices":[7,9,8,5,0,0,0,2,0,0,0],"split_type":[0,0,0,0,0,0,0,0,0,0,0],"sum_hessian":[2.7709778E1,1.906317E1,8.646607E0,1.3982746E1,5.0804234E0,4.0310125E0,4.6155944E0,8.827325E0,5.1554217E0,4.5849586E0,4.2423663E0],"tree_param":{"num_deleted":"0","num_feature":"10","num_nodes":"11","size_leaf_vector":"0"}},{"base_weights":[6.862024E-3,4.5225543E-1,-1.24116026E-1,-5.17412E-1,-0E0,3.034087E-1,-2.0220421E-1,-4.6527055E-1,-0E0],"categories":[],"categories_nodes":[],"categories_segments":[],"categories_sizes":[],"default_left":[1,0,1,0,1,0,1,0,0],"id":36,"left_children":[1,-1,3,-1,5,-1,7,-1,-1],"loss_changes":[2.069359E0,0E0,1.2583401E0,0E0,1.1120955E0,0E0,8.2599604E-1,0E0,0E0],"parents":[2147483647,0,0,2,2,4,4,6,6],"right_children":[2,-1,4,-1,6,-1,8,-1,-1],"split_conditions":[4.355E1,1.8090217E-1,3.565E2,-2.069648E-1,4.8300003E1,1.2136348E-1,2.9115E1,-1.8610822E-1,-0E0],"split_indices":[1,0,0,0,1,0,4,0,0],"split_type":[0,0,0,0,0,0,0,0,0],"sum_hessian":[2.7885519E1,7.514448E0,2.037107E1,4.9300213E0,1.544105E1,6.79732E0,8.643729E0,4.6370726E0,4.0066566E0],"tree_param":{"num_deleted":"0","num_feature":"10","num_nodes":"9","size_leaf_vector":"0"}},{"base_weights":[3.16471E-1,4.3606147E-1,-1.9747126E-1,-1.99161E-1,5.861843E-1,7.496793E-1,1.0246689E-1,-0E0,3.3594722E-1],"categories":[],"categories_nodes":[],"categories_segments":[],"categories_sizes":[],"default_left":[1,1,0,0,1,0,1,0,0],"id":37,"left_children":[1,3,-1,-1,5,-1,7,-1,-1],"loss_changes":[2.5280674E0,3.4572973E0,0E0,0E0,1.1730013E0,0E0,4.7213125E-1,0E0,0E0],"parents":[2147483647,0,0,1,1,4,4,6,6],"right_children":[2,4,-1,-1,6,-1,8,-1,-1],"split_conditions":[1.566E0,1.195E1,-7.898851E-2,-7.96644E-2,8.225E2,2.9987174E-1,4.342E3,-0E0,1.343789E-1],"split_indices":[9,2,0,0,0,0,0,0,0],"split_type":[0,0,0,0,0,0,0,0,0],"sum_hessian":[3.484892E1,2.9971952E1,4.876966E0,4.393529E0,2.5578424E1,1.7160933E1,8.417492E0,4.3580627E0,4.059429E0],"tree_param":{"num_deleted":"0","num_feature":"10","num_nodes":"9","size_leaf_vector":"0"}},{"base_weights":[2.8892105E-2,-8.14961E-2,4.1967013E-1,-2.9226658E-1,1.1020115E-1,-5.5890894E-1,1.2246493E-1,-0E0,3.5324532E-1],"categories":[],"categories_nodes":[],"categories_segments":[],"categories_sizes":[],"default_left":[1,1,0,1,1,0,0,0,0],"id":38,"left_children":[1,3,-1,5,7,-1,-1,-1,-1],"loss_changes":[1.7939097E0,1.205681E0,0E0,2.1023693E0,5.22203E-1,0E0,0E0,0E0,0E0],"parents":[2147483647,0,0,1,1,3,3,4,4],"right_children":[2,4,-1,6,8,-1,-1,-1,-1],"split_conditions":[2.713E3,6.27E1,1.6786806E-1,3.311E2,4.105E1,-2.2356358E-1,4.8985973E-2,-0E0,1.4129813E-1],"split_indices":[0,6,0,5,8,0,0,0,0],"split_type":[0,0,0,0,0,0,0,0,0],"sum_hessian":[3.1953722E1,2.3537289E1,8.416432E0,1.344571E1,1.00915785E1,9.440019E0,4.005691E0,5.8271894E0,4.264389E0],"tree_param":{"num_deleted":"0","num_feature":"10","num_nodes":"9","size_leaf_vector":"0"}},{"base_weights":[1.3408716E-1,-3.8880162E-2,3.3108565E-1,1.6224784E-1,-4.638838E-1,-0E0,5.329978E-1,-0E0,3.3093402E-1,-0E0,7.568374E-1],"categories":[],"categories_nodes":[],"categories_segments":[],"categories_sizes":[],"default_left":[1,1,1,1,0,0,1,0,0,0,0],"id":39,"left_children":[1,3,5,7,-1,-1,9,-1,-1,-1,-1],"loss_changes":[1.3793988E0,1.6574193E0,1.6085213E0,3.250734E-1,0E0,0E0,1.081974E0,0E0,0E0,0E0,0E0],"parents":[2147483647,0,0,1,1,2,2,3,3,6,6],"right_children":[2,4,6,8,-1,-1,10,-1,-1,-1,-1],"split_conditions":[2.848E1,2.571E1,1.505E1,1.214E3,-1.8555352E-1,-0E0,6.015E1,-0E0,1.3237362E-1,-0E0,3.0273497E-1],"split_indices":[4,4,5,0,0,0,6,0,0,0,0],"split_type":[0,0,0,0,0,0,0,0,0,0,0],"sum_hessian":[3.0528765E1,1.3980316E1,1.6548449E1,8.312056E0,5.6682606E0,5.115124E0,1.1433325E1,4.105507E0,4.206548E0,4.3779945E0,7.0553308E0],"tree_param":{"num_deleted":"0","num_feature":"10","num_nodes":"11","size_leaf_vector":"0"}},{"base_weights":[-0E0,-3.5880727E-1,1.837714E-1,-6.777423E-1,-0E0,4.267265E-1,-1.997772E-2,-3.7185875E-1,1.5461113E-1],"categories":[],"categories_nodes":[],"categories_segments":[],"categories_sizes":[],"default_left":[1,1,1,0,0,0,1,0,0],"id":40,"left_children":[1,3,5,-1,-1,-1,7,-1,-1],"loss_changes":[2.0061204E0,1.2855253E0,1.3965368E0,0E0,0E0,0E0,8.582414E-1,0E0,0E0],"parents":[2147483647,0,0,1,1,2,2,6,6],"right_children":[2,4,6,-1,-1,-1,8,-1,-1],"split_conditions":[4.725E1,6.275E1,1.355E1,-2.7109692E-1,-0E0,1.706906E-1,2.9255001E1,-1.487435E-1,6.184445E-2],"split_indices":[1,6,2,0,0,0,4,0,0],"split_type":[0,0,0,0,0,0,0,0,0],"sum_hessian":[2.8205225E1,9.382482E0,1.8822744E1,4.7086782E0,4.673803E0,1.032482E1,8.497925E0,4.342837E0,4.1550875E0],"tree_param":{"num_deleted":"0","num_feature":"10","num_nodes":"9","size_leaf_vector":"0"}},{"base_weights":[9.483405E-4,2.7729103E-1,-2.650664E-1,5.8380556E-1,-1.1092002E-2,-0E0,-6.125221E-1],"categories":[],"categories_nodes":[],"categories_segments":[],"categories_sizes":[],"default_left":[1,1,1,0,0,0,0],"id":41,"left_children":[1,3,5,-1,-1,-1,-1],"loss_changes":[2.2574356E0,2.066193E0,1.304785E0,0E0,0E0,0E0,0E0],"parents":[2147483647,0,0,1,1,2,2],"right_children":[2,4,6,-1,-1,-1,-1],"split_conditions":[3.39E2,6.125E1,2.818E1,2.3352222E-1,-4.4368007E-3,-0E0,-2.4500886E-1],"split_indices":[3,6,4,0,0,0,0],"split_type":[0,0,0,0,0,0,0],"sum_hessian":[2.8542568E1,1.5822532E1,1.27200365E1,8.854511E0,6.968021E0,7.672974E0,5.0470624E0],"tree_param":{"num_deleted":"0","num_feature":"10","num_nodes":"7","size_leaf_vector":"0"}},{"base_weights":[1.1239542E-1,2.801425E-1,-3.4813765E-2,-0E0,4.5560962E-1,-3.6816862E-1,5.4992404E-2],"categories":[],"categories_nodes":[],"categories_segments":[],"categories_sizes":[],"default_left":[1,1,1,0,0,0,0],"id":42,"left_children":[1,3,5,-1,-1,-1,-1],"loss_changes":[9.347521E-1,1.0669867E0,7.038588E-1,0E0,0E0,0E0,0E0],"parents":[2147483647,0,0,1,1,2,2],"right_children":[2,4,6,-1,-1,-1,-1],"split_conditions":[2.7099998E1,2.085E2,6.11E2,-0E0,1.8224385E-1,-1.4726745E-1,2.1996962E-2],"split_indices":[5,3,0,0,0,0,0],"split_type":[0,0,0,0,0,0,0],"sum_hessian":[2.6523813E1,1.515009E1,1.1373723E1,4.904105E0,1.0245985E1,4.11916E0,7.2545633E0],"tree_param":{"num_deleted":"0","num_feature":"10","num_nodes":"7","size_leaf_vector":"0"}},{"base_weights":[-7.65098E-2,9.037329E-2,-6.458337E-1,-4.364042E-2,5.9692883E-1,1.5738055E-1,-2.9788107E-1],"categories":[],"categories_nodes":[],"categories_segments":[],"categories_sizes":[],"default_left":[1,1,0,1,0,0,0],"id":43,"left_children":[1,3,-1,5,-1,-1,-1],"loss_changes":[2.96272E0,1.8445394E0,0E0,9.084572E-1,0E0,0E0,0E0],"parents":[2147483647,0,0,1,1,3,3],"right_children":[2,4,-1,6,-1,-1,-1],"split_conditions":[3.975E1,1.599895E2,-2.5833347E-1,3.495E1,2.3877154E-1,6.295222E-2,-1.1915243E-1],"split_indices":[8,7,0,8,0,0,0],"split_type":[0,0,0,0,0,0,0],"sum_hessian":[2.3722452E1,1.7637308E1,6.085144E0,1.31089525E1,4.5283566E0,5.336906E0,7.772046E0],"tree_param":{"num_deleted":"0","num_feature":"10","num_nodes":"7","size_leaf_vector":"0"}},{"base_weights":[1.4900216E-1,-0E0,6.0679734E-1,-2.848868E-1,1.05842106E-1,3.2276535E-1,-1.2282996E-1],"categories":[],"categories_nodes":[],"categories_segments":[],"categories_sizes":[],"default_left":[1,1,0,0,1,0,0],"id":44,"left_children":[1,3,-1,-1,5,-1,-1],"loss_changes":[2.1279879E0,7.5128305E-1,0E0,0E0,1.0531733E0,0E0,0E0],"parents":[2147483647,0,0,1,1,4,4],"right_children":[2,4,-1,-1,6,-1,-1],"split_conditions":[1.3435E3,1.31E1,2.4271894E-1,-1.1395472E-1,6.165E2,1.2910615E-1,-4.9131986E-2],"split_indices":[3,5,0,0,3,0,0],"split_type":[0,0,0,0,0,0,0],"sum_hessian":[2.7917542E1,2.1394505E1,6.5230374E0,5.9928436E0,1.5401662E1,9.936901E0,5.464761E0],"tree_param":{"num_deleted":"0","num_feature":"10","num_nodes":"7","size_leaf_vector":"0"}},{"base_weights":[7.021304E-2,3.306627E-1,-1.6767871E-1,6.4097404E-1,-0E0,-4.2813087E-1,4.4992946E-2,-9.922276E-2,2.2302297E-1],"categories":[],"categories_nodes":[],"categories_segments":[],"categories_sizes":[],"default_left":[1,1,1,0,1,0,0,0,0],"id":45,"left_children":[1,3,5,-1,7,-1,-1,-1,-1],"loss_changes":[1.8662521E0,1.0927147E0,1.0979168E0,0E0,3.1662494E-1,0E0,0E0,0E0,0E0],"parents":[2147483647,0,0,1,1,2,2,4,4],"right_children":[2,4,6,-1,8,-1,-1,-1,-1],"split_conditions":[2.794E1,6.05E0,7.945E2,2.5638962E-1,8.44915E1,-1.7125235E-1,1.799718E-2,-3.9689105E-2,8.920919E-2],"split_indices":[4,5,0,0,7,0,0,0,0],"split_type":[0,0,0,0,0,0,0,0,0],"sum_hessian":[2.5595453E1,1.4038922E1,1.1556531E1,5.661928E0,8.376995E0,6.8529363E0,4.703594E0,4.0012155E0,4.375779E0],"tree_param":{"num_deleted":"0","num_feature":"10","num_nodes":"9","size_leaf_vector":"0"}},{"base_weights":[1.9007301E-1,-5.4020397E-2,3.5831505E-1,1.06116824E-1,-4.517816E-1,-0E0,4.864102E-1,1.0870312E-1,6.468959E-1],"categories":[],"categories_nodes":[],"categories_segments":[],"categories_sizes":[],"default_left":[1,1,1,0,0,0,1,1,1],"id":46,"left_children":[1,3,5,-1,-1,-1,-1,-1,-1],"loss_changes":[1.5674821E0,1.0816525E0,8.007748E-1,0E0,0E0,0E0,5.3110838E-2,0E0,0E0],"parents":[2147483647,0,0,1,1,2,2,6,6],"right_children":[2,4,6,-1,-1,-1,-1,-1,-1],"split_conditions":[1.0062E1,4.655E1,3.685E1,4.244673E-2,-1.8071264E-1,-0E0,1.9456409E-1,4.348125E-2,2.5875837E-1],"split_indices":[7,1,8,0,0,0,4,2147483647,2147483647],"split_type":[0,0,0,0,0,0,0,0,0],"sum_hessian":[2.9288025E1,9.801967E0,1.9486057E1,5.718759E0,4.083208E0,5.98459E0,1.3501467E1,6.384295E0,7.1171722E0],"tree_param":{"num_deleted":"2","num_feature":"10","num_nodes":"9","size_leaf_vector":"0"}},{"base_weights":[7.218193E-2,3.1765664E-1,-2.8419244E-1,5.791392E-1,-0E0,-4.6097293E-1,-0E0],"categories":[],"categories_nodes":[],"categories_segments":[],"categories_sizes":[],"default_left":[1,1,1,0,0,0,0],"id":47,"left_children":[1,3,5,-1,-1,-1,-1],"loss_changes":[2.5122883E0,1.8774952E0,4.5936346E-1,0E0,0E0,0E0,0E0],"parents":[2147483647,0,0,1,1,2,2],"right_children":[2,4,6,-1,-1,-1,-1],"split_conditions":[6.15E1,1.355E1,2.4335E1,2.3165567E-1,-0E0,-1.8438917E-1,-0E0],"split_indices":[6,2,7,0,0,0,0],"split_type":[0,0,0,0,0,0,0],"sum_hessian":[2.6303656E1,1.7301125E1,9.00253E0,1.0103637E1,7.197488E0,4.9635043E0,4.0390253E0],"tree_param":{"num_deleted":"0","num_feature":"10","num_nodes":"7","size_leaf_vector":"0"}},{"base_weights":[3.700338E-2,3.0791247E-1,-3.3059186E-1,-0E0,4.5206636E-1,-7.902419E-1,7.363906E-3],"categories":[],"categories_nodes":[],"categories_segments":[],"categories_sizes":[],"default_left":[1,1,1,0,0,0,0],"id":48,"left_children":[1,3,5,-1,-1,-1,-1],"loss_changes":[2.5654616E0,8.475293E-1,2.2658854E0,0E0,0E0,0E0,0E0],"parents":[2147483647,0,0,1,1,2,2],"right_children":[2,4,6,-1,-1,-1,-1],"split_conditions":[3.815E1,4.865E1,7.19E2,-0E0,1.8082654E-1,-3.1609675E-1,2.9455626E-3],"split_indices":[8,1,3,0,0,0,0],"split_type":[0,0,0,0,0,0,0],"sum_hessian":[2.396712E1,1.5457814E1,8.509304E0,4.675426E0,1.0782389E1,4.292198E0,4.217106E0],"tree_param":{"num_deleted":"0","num_feature":"10","num_nodes":"7","size_leaf_vector":"0"}},{"base_weights":[-1.4347266E-2,-1.9217509E-1,3.761885E-1,-0E0,-4.6635705E-1,-2.4208249E-1,1.5874477E-1],"categories":[],"categories_nodes":[],"categories_segments":[],"categories_sizes":[],"default_left":[1,1,0,1,0,0,0],"id":49,"left_children":[1,3,-1,5,-1,-1,-1],"loss_changes":[1.6444339E0,9.6513414E-1,0E0,5.518496E-1,0E0,0E0,0E0],"parents":[2147483647,0,0,1,1,3,3],"right_children":[2,4,-1,6,-1,-1,-1],"split_conditions":[2.7095E3,1.1805E2,1.504754E-1,5.23E2,-1.8654282E-1,-9.6833E-2,6.349791E-2],"split_indices":[0,5,0,0,0,0,0],"split_type":[0,0,0,0,0,0,0],"sum_hessian":[2.4287268E1,1.8796783E1,5.490484E0,1.1997516E1,6.799268E0,4.9607654E0,7.0367503E0],"tree_param":{"num_deleted":"0","num_feature":"10","num_nodes":"7","size_leaf_vector":"0"}},{"base_weights":[8.869209E-2,-1.70749E-2,4.1826603E-1,3.508321E-1,-3.4510538E-1,7.8024924E-1,-0E0,-6.4494246E-1,-0E0],"categories":[],"categories_nodes":[],"categories_segments":[],"categories_sizes":[],"default_left":[1,1,1,0,1,0,0,0,0],"id":50,"left_children":[1,3,5,-1,7,-1,-1,-1,-1],"loss_changes":[1.3935776E0,2.536439E0,1.4742224E0,0E0,6.761906E-1,0E0,0E0,0E0,0E0],"parents":[2147483647,0,0,1,1,2,2,4,4],"right_children":[2,4,6,-1,8,-1,-1,-1,-1],"split_conditions":[1.675E1,1.013E0,5.29E2,1.4033285E-1,6.05E2,3.120997E-1,-0E0,-2.5797698E-1,-0E0],"split_indices":[2,9,0,0,0,0,0,0,0],"split_type":[0,0,0,0,0,0,0,0,0],"sum_hessian":[2.7264484E1,1.9061296E1,8.203188E0,7.5148764E0,1.154642E1,4.066268E0,4.13692E0,4.2180223E0,7.3283973E0],"tree_param":{"num_deleted":"0","num_feature":"10","num_nodes":"9","size_leaf_vector":"0"}},{"base_weights":[4.6052158E-2,3.2393485E-1,-1.1675913E-1,-0E0,7.5952995E-1,-2.9548764E-1,-0E0],"categories":[],"categories_nodes":[],"categories_segments":[],"categories_sizes":[],"default_left":[1,1,1,0,0,0,0],"id":51,"left_children":[1,3,5,-1,-1,-1,-1],"loss_changes":[1.3840733E0,1.7394192E0,4.371987E-1,0E0,0E0,0E0,0E0],"parents":[2147483647,0,0,1,1,2,2],"right_children":[2,4,6,-1,-1,-1,-1],"split_conditions":[4.675E1,4.575E1,1.46E1,-0E0,3.03812E-1,-1.1819506E-1,-0E0],"split_indices":[1,1,2,0,0,0,0],"split_type":[0,0,0,0,0,0,0],"sum_hessian":[2.4177141E1,1.083561E1,1.3341532E1,6.6675596E0,4.1680503E0,6.2464905E0,7.095041E0],"tree_param":{"num_deleted":"0","num_feature":"10","num_nodes":"7","size_leaf_vector":"0"}},{"base_weights":[4.894334E-2,4.574319E-1,-2.3443528E-1,-0E0,7.034633E-1,-0E0,-3.8159406E-1],"categories":[],"categories_nodes":[],"categories_segments":[],"categories_sizes":[],"default_left":[1,1,1,0,0,0,0],"id":52,"left_children":[1,3,5,-1,-1,-1,-1],"loss_changes":[3.1192865E0,9.580798E-1,4.889859E-1,0E0,0E0,0E0,0E0],"parents":[2147483647,0,0,1,1,2,2],"right_children":[2,4,6,-1,-1,-1,-1],"split_conditions":[4.09E2,3.935E1,1.35E1,-0E0,2.8138533E-1,-0E0,-1.5263763E-1],"split_indices":[0,8,5,0,0,0,0],"split_type":[0,0,0,0,0,0,0],"sum_hessian":[2.309404E1,1.0652773E1,1.2441267E1,4.789523E0,5.8632493E0,5.0099607E0,7.431306E0],"tree_param":{"num_deleted":"0","num_feature":"10","num_nodes":"7","size_leaf_vector":"0"}},{"base_weights":[4.0843356E-2,5.6388503E-1,-2.6659268E-1,-5.4669195E-1,5.881338E-2],"categories":[],"categories_nodes":[],"categories_segments":[],"categories_sizes":[],"default_left":[1,0,1,0,0],"id":53,"left_children":[1,-1,3,-1,-1],"loss_changes":[4.372875E0,0E0,1.8734398E0,0E0,0E0],"parents":[2147483647,0,0,2,2],"right_children":[2,-1,4,-1,-1],"split_conditions":[1.235E1,2.2555402E-1,1.5569999E0,-2.1867679E-1,2.3525352E-2],"split_indices":[2,0,9,0,0],"split_type":[0,0,0,0,0],"sum_hessian":[2.3410505E1,9.561707E0,1.3848799E1,8.728573E0,5.120226E0],"tree_param":{"num_deleted":"0","num_feature":"10","num_nodes":"5","size_leaf_vector":"0"}},{"base_weights":[9.052333E-2,3.7118113E-1,-0E0,-3.7161806E-1,1.6782418E-1,-0E0,3.1553048E-1],"categories":[],"categories_nodes":[],"categories_segments":[],"categories_sizes":[],"default_left":[1,0,1,0,1,0,0],"id":54,"left_children":[1,-1,3,-1,5,-1,-1],"loss_changes":[9.412504E-1,0E0,1.3194337E0,0E0,3.283646E-1,0E0,0E0],"parents":[2147483647,0,0,2,2,4,4],"right_children":[2,-1,4,-1,6,-1,-1],"split_conditions":[3.978E0,1.4847246E-1,7.955E2,-1.4864723E-1,3.79E1,-0E0,1.262122E-1],"split_indices":[7,0,0,0,8,0,0],"split_type":[0,0,0,0,0,0,0],"sum_hessian":[2.3693247E1,7.300453E0,1.6392794E1,6.289774E0,1.010302E1,4.6638484E0,5.439171E0],"tree_param":{"num_deleted":"0","num_feature":"10","num_nodes":"7","size_leaf_vector":"0"}},{"base_weights":[-0E0,2.1093808E-1,-2.3549806E-1,-8.837693E-3,3.7642825E-1,-0E0,-5.0861967E-1,5.290649E-1,-0E0],"categories":[],"categories_nodes":[],"categories_segments":[],"categories_sizes":[],"default_left":[1,1,1,0,1,0,0,0,0],"id":55,"left_children":[1,3,5,-1,7,-1,-1,-1,-1],"loss_changes":[1.2535553E0,9.355204E-1,7.955196E-1,0E0,4.0895545E-1,0E0,0E0,0E0,0E0],"parents":[2147483647,0,0,1,1,2,2,4,4],"right_children":[2,4,6,-1,8,-1,-1,-1,-1],"split_conditions":[4.885E1,3.695E2,1.56E1,-3.5350774E-3,8.2E2,-0E0,-2.0344786E-1,2.1162596E-1,-0E0],"split_indices":[1,0,5,0,0,0,0,0,0],"split_type":[0,0,0,0,0,0,0,0,0],"sum_hessian":[2.3672195E1,1.4523555E1,9.148641E0,4.0495605E0,1.0473993E1,4.897816E0,4.2508245E0,6.2694883E0,4.2045054E0],"tree_param":{"num_deleted":"0","num_feature":"10","num_nodes":"9","size_leaf_vector":"0"}},{"base_weights":[1.7341718E-1,3.3402535E-1,-2.8780323E-1,-0E0,4.4927123E-1,5.5787545E-1,-0E0],"categories":[],"categories_nodes":[],"categories_segments":[],"categories_sizes":[],"default_left":[1,1,0,0,1,0,0],"id":56,"left_children":[1,3,-1,-1,5,-1,-1],"loss_changes":[2.1863422E0,1.1369178E0,0E0,0E0,6.646137E-1,0E0,0E0],"parents":[2147483647,0,0,1,1,4,4],"right_children":[2,4,-1,-1,6,-1,-1],"split_conditions":[1.2205E3,4.2449997E1,-1.151213E-1,-0E0,1.535E1,2.2315018E-1,-0E0],"split_indices":[0,1,0,0,2,0,0],"split_type":[0,0,0,0,0,0,0],"sum_hessian":[2.6593185E1,2.153731E1,5.0558753E0,4.4468045E0,1.7090506E1,1.2868053E1,4.2224507E0],"tree_param":{"num_deleted":"0","num_feature":"10","num_nodes":"7","size_leaf_vector":"0"}},{"base_weights":[8.9391775E-2,-9.363541E-2,3.8316056E-1,-3.875635E-1,-0E0,5.0133634E-1,-0E0,1.8804379E-1,-1.3731411E-1],"categories":[],"categories_nodes":[],"categories_segments":[],"categories_sizes":[],"default_left":[1,1,1,0,1,0,0,0,0],"id":57,"left_children":[1,3,5,-1,7,-1,-1,-1,-1],"loss_changes":[1.81022E0,6.4521825E-1,2.3090744E-1,0E0,3.5078517E-1,0E0,0E0,0E0,0E0],"parents":[2147483647,0,0,1,1,2,2,4,4],"right_children":[2,4,6,-1,8,-1,-1,-1,-1],"split_conditions":[6.97E2,1.225E1,3.815E1,-1.5502541E-1,2.42E2,2.0053454E-1,-0E0,7.5217515E-2,-5.4925647E-2],"split_indices":[3,2,8,0,3,0,0,0,0],"split_type":[0,0,0,0,0,0,0,0,0],"sum_hessian":[2.6615435E1,1.4721008E1,1.1894426E1,4.2132163E0,1.05077915E1,7.4506235E0,4.4438033E0,5.964348E0,4.5434437E0],"tree_param":{"num_deleted":"0","num_feature":"10","num_nodes":"9","size_leaf_vector":"0"}},{"base_weights":[1.06496595E-1,-0E0,3.4883648E-1,2.4342275E-1,-2.1361469E-1,-5.3936607E-1,5.9768192E-2],"categories":[],"categories_nodes":[],"categories_segments":[],"categories_sizes":[],"default_left":[1,1,0,0,1,0,0],"id":58,"left_children":[1,3,-1,-1,5,-1,-1],"loss_changes":[7.8174865E-1,1.0337439E0,0E0,0E0,1.5095217E0,0E0,0E0],"parents":[2147483647,0,0,1,1,4,4],"right_children":[2,4,-1,-1,6,-1,-1],"split_conditions":[2.0025E2,2.5685001E1,1.395346E-1,9.73691E-2,5.05E1,-2.1574643E-1,2.3907278E-2],"split_indices":[5,4,0,0,1,0,0],"split_type":[0,0,0,0,0,0,0],"sum_hessian":[2.5958368E1,1.8021517E1,7.936851E0,7.818457E0,1.020306E1,5.88075E0,4.32231E0],"tree_param":{"num_deleted":"0","num_feature":"10","num_nodes":"7","size_leaf_vector":"0"}},{"base_weights":[9.864048E-2,-1.9518862E-2,3.1162223E-1,1.6909964E-2,-2.2972403E-1,-0E0,5.816917E-1,1.0294791E-1,-0E0],"categories":[],"categories_nodes":[],"categories_segments":[],"categories_sizes":[],"default_left":[1,1,1,1,0,0,0,1,1],"id":59,"left_children":[1,3,5,-1,-1,-1,-1,-1,-1],"loss_changes":[9.95643E-1,3.3727774E-1,1.2417839E0,5.0324783E-2,0E0,0E0,0E0,0E0,0E0],"parents":[2147483647,0,0,1,1,2,2,3,3],"right_children":[2,4,6,-1,-1,-1,-1,-1,-1],"split_conditions":[1.169E2,6.125E1,5.97E1,6.763986E-3,-9.188961E-2,-0E0,2.3267667E-1,4.1179165E-2,-0E0],"split_indices":[5,6,6,6,0,0,0,2147483647,2147483647],"split_type":[0,0,0,0,0,0,0,0,0],"sum_hessian":[2.6714497E1,1.4746472E1,1.1968023E1,9.297502E0,5.448971E0,5.5763407E0,6.391683E0,4.0262275E0,5.2712746E0],"tree_param":{"num_deleted":"2","num_feature":"10","num_nodes":"9","size_leaf_vector":"0"}},{"base_weights":[-0E0,1.9682893E-1,-7.978857E-2,-3.266368E-1,-0E0,3.1237867E-1,-1.3194111E-1],"categories":[],"categories_nodes":[],"categories_segments":[],"categories_sizes":[],"default_left":[1,0,1,0,1,0,0],"id":60,"left_children":[1,-1,3,-1,5,-1,-1],"loss_changes":[3.2607043E-1,0E0,6.214235E-1,0E0,7.318871E-1,0E0,0E0],"parents":[2147483647,0,0,2,2,4,4],"right_children":[2,-1,4,-1,6,-1,-1],"split_conditions":[9.15E-1,7.8731574E-2,1.245E0,-1.3065472E-1,4.675E1,1.24951474E-1,-5.2776445E-2],"split_indices":[9,0,9,0,1,0,0],"split_type":[0,0,0,0,0,0,0],"sum_hessian":[2.279161E1,4.196588E0,1.8595022E1,5.993706E0,1.2601316E1,4.958449E0,7.642868E0],"tree_param":{"num_deleted":"0","num_feature":"10","num_nodes":"7","size_leaf_vector":"0"}},{"base_weights":[8.7203095E-3,3.6029506E-1,-4.448781E-2,-5.20831E-1,7.56295E-2,-6.060757E-2,3.859486E-1],"categories":[],"categories_nodes":[],"categories_segments":[],"categories_sizes":[],"default_left":[1,0,1,0,1,0,0],"id":61,"left_children":[1,-1,3,-1,5,-1,-1],"loss_changes":[7.56026E-1,0E0,1.5210693E0,0E0,9.263817E-1,0E0,0E0],"parents":[2147483647,0,0,2,2,4,4],"right_children":[2,-1,4,-1,6,-1,-1],"split_conditions":[1.375E2,1.4411803E-1,6.05E2,-2.083324E-1,8.475E2,-2.4243029E-2,1.5437944E-1],"split_indices":[0,0,0,0,3,0,0],"split_type":[0,0,0,0,0,0,0],"sum_hessian":[2.1675919E1,4.5610824E0,1.7114836E1,4.4513836E0,1.2663452E1,7.1198716E0,5.5435805E0],"tree_param":{"num_deleted":"0","num_feature":"10","num_nodes":"7","size_leaf_vector":"0"}}]},"name":"gbtree"},"learner_model_param":{"base_score":"5E-1","boost_from_average":"1","num_class":"0","num_feature":"10","num_target":"1"},"objective":{"name":"binary:logistic","reg_loss_param":{"scale_pos_weight":"6"}}},"version":[1,7,7]}